digraph Tree {
node [shape=box] ;
0 [label="wicket <= 0.5\ngini = 0.767\nsamples = 655\nvalue = [93, 113, 234, 128, 87]\nclass = football"] ;
1 [label="athlet <= 0.5\ngini = 0.745\nsamples = 595\nvalue = [93, 53, 234, 128, 87]\nclass = football"] ;
0 -> 1 [labeldistance=2.5, labelangle=45, headlabel="True"] ;
2 [label="seed <= 0.5\ngini = 0.712\nsamples = 532\nvalue = [33, 53, 232, 128, 86]\nclass = football"] ;
1 -> 2 ;
3 [label="wale <= 0.5\ngini = 0.685\nsamples = 488\nvalue = [33, 53, 230, 127, 45]\nclass = football"] ;
2 -> 3 ;
4 [label="tenni <= 0.5\ngini = 0.661\nsamples = 420\nvalue = [32, 50, 222, 71, 45]\nclass = football"] ;
3 -> 4 ;
5 [label="zealand <= 0.5\ngini = 0.622\nsamples = 392\nvalue = [32, 49, 222, 71, 18]\nclass = football"] ;
4 -> 5 ;
6 [label="indoor <= 0.5\ngini = 0.577\nsamples = 360\nvalue = [32, 31, 222, 57, 18]\nclass = football"] ;
5 -> 6 ;
7 [label="india <= 0.5\ngini = 0.541\nsamples = 343\nvalue = [16, 31, 222, 57, 17]\nclass = football"] ;
6 -> 7 ;
8 [label="robinson <= 0.5\ngini = 0.51\nsamples = 330\nvalue = [16, 18, 222, 57, 17]\nclass = football"] ;
7 -> 8 ;
9 [label="flanker <= 0.5\ngini = 0.478\nsamples = 314\nvalue = [16, 18, 221, 42, 17]\nclass = football"] ;
8 -> 9 ;
10 [label="grand <= 0.5\ngini = 0.445\nsamples = 302\nvalue = [16, 18, 221, 30, 17]\nclass = football"] ;
9 -> 10 ;
11 [label="icc <= 0.5\ngini = 0.402\nsamples = 290\nvalue = [13, 18, 221, 30, 8]\nclass = football"] ;
10 -> 11 ;
12 [label="heineken <= 0.5\ngini = 0.375\nsamples = 283\nvalue = [13, 11, 221, 30, 8]\nclass = football"] ;
11 -> 12 ;
13 [label="roddick <= 0.5\ngini = 0.344\nsamples = 274\nvalue = [13, 11, 220, 22, 8]\nclass = football"] ;
12 -> 13 ;
14 [label="marathon <= 0.5\ngini = 0.32\nsamples = 269\nvalue = [13, 11, 220, 22, 3]\nclass = football"] ;
13 -> 14 ;
15 [label="bell <= 0.5\ngini = 0.296\nsamples = 264\nvalue = [8, 11, 220, 22, 3]\nclass = football"] ;
14 -> 15 ;
16 [label="batsman <= 0.5\ngini = 0.265\nsamples = 258\nvalue = [8, 7, 220, 20, 3]\nclass = football"] ;
15 -> 16 ;
17 [label="rb <= 0.5\ngini = 0.248\nsamples = 255\nvalue = [8, 4, 220, 20, 3]\nclass = football"] ;
16 -> 17 ;
18 [label="scrum <= 0.5\ngini = 0.232\nsamples = 252\nvalue = [8, 4, 220, 17, 3]\nclass = football"] ;
17 -> 18 ;
19 [label="edinburgh <= 0.5\ngini = 0.215\nsamples = 249\nvalue = [8, 4, 220, 14, 3]\nclass = football"] ;
18 -> 19 ;
20 [label="union <= 0.5\ngini = 0.19\nsamples = 245\nvalue = [7, 3, 220, 12, 3]\nclass = football"] ;
19 -> 20 ;
21 [label="compet <= 1.5\ngini = 0.166\nsamples = 239\nvalue = [7, 3, 218, 8, 3]\nclass = football"] ;
20 -> 21 ;
22 [label="gb <= 0.5\ngini = 0.145\nsamples = 236\nvalue = [5, 3, 218, 8, 2]\nclass = football"] ;
21 -> 22 ;
23 [label="perth <= 0.5\ngini = 0.131\nsamples = 234\nvalue = [3, 3, 218, 8, 2]\nclass = football"] ;
22 -> 23 ;
24 [label="tait <= 0.5\ngini = 0.116\nsamples = 232\nvalue = [3, 3, 218, 6, 2]\nclass = football"] ;
23 -> 24 ;
25 [label="sydney <= 0.5\ngini = 0.101\nsamples = 230\nvalue = [3, 3, 218, 4, 2]\nclass = football"] ;
24 -> 25 ;
26 [label="dublin <= 2.5\ngini = 0.078\nsamples = 226\nvalue = [1, 3, 217, 4, 1]\nclass = football"] ;
25 -> 26 ;
27 [label="boy <= 1.5\ngini = 0.069\nsamples = 225\nvalue = [0, 3, 217, 4, 1]\nclass = football"] ;
26 -> 27 ;
28 [label="taibu <= 1.0\ngini = 0.061\nsamples = 224\nvalue = [0, 2, 217, 4, 1]\nclass = football"] ;
27 -> 28 ;
29 [label="financi <= 1.5\ngini = 0.053\nsamples = 223\nvalue = [0, 1, 217, 4, 1]\nclass = football"] ;
28 -> 29 ;
30 [label="bath <= 3.0\ngini = 0.044\nsamples = 222\nvalue = [0, 0, 217, 4, 1]\nclass = football"] ;
29 -> 30 ;
31 [label="shock <= 1.5\ngini = 0.036\nsamples = 221\nvalue = [0, 0, 217, 3, 1]\nclass = football"] ;
30 -> 31 ;
32 [label="fear <= 1.5\ngini = 0.027\nsamples = 220\nvalue = [0, 0, 217, 2, 1]\nclass = football"] ;
31 -> 32 ;
33 [label="zurich <= 0.5\ngini = 0.018\nsamples = 219\nvalue = [0, 0, 217, 1, 1]\nclass = football"] ;
32 -> 33 ;
34 [label="women <= 0.5\ngini = 0.009\nsamples = 218\nvalue = [0, 0, 217, 0, 1]\nclass = football"] ;
33 -> 34 ;
35 [label="gini = 0.0\nsamples = 214\nvalue = [0, 0, 214, 0, 0]\nclass = football"] ;
34 -> 35 ;
36 [label="gini = 0.375\nsamples = 4\nvalue = [0, 0, 3, 0, 1]\nclass = football"] ;
34 -> 36 ;
37 [label="gini = 0.0\nsamples = 1\nvalue = [0, 0, 0, 1, 0]\nclass = rugby"] ;
33 -> 37 ;
38 [label="gini = 0.0\nsamples = 1\nvalue = [0, 0, 0, 1, 0]\nclass = rugby"] ;
32 -> 38 ;
39 [label="gini = 0.0\nsamples = 1\nvalue = [0, 0, 0, 1, 0]\nclass = rugby"] ;
31 -> 39 ;
40 [label="gini = 0.0\nsamples = 1\nvalue = [0, 0, 0, 1, 0]\nclass = rugby"] ;
30 -> 40 ;
41 [label="gini = 0.0\nsamples = 1\nvalue = [0, 1, 0, 0, 0]\nclass = cricket"] ;
29 -> 41 ;
42 [label="gini = 0.0\nsamples = 1\nvalue = [0, 1, 0, 0, 0]\nclass = cricket"] ;
28 -> 42 ;
43 [label="gini = 0.0\nsamples = 1\nvalue = [0, 1, 0, 0, 0]\nclass = cricket"] ;
27 -> 43 ;
44 [label="gini = 0.0\nsamples = 1\nvalue = [1, 0, 0, 0, 0]\nclass = athletics"] ;
26 -> 44 ;
45 [label="gini = 0.625\nsamples = 4\nvalue = [2, 0, 1, 0, 1]\nclass = athletics"] ;
25 -> 45 ;
46 [label="gini = 0.0\nsamples = 2\nvalue = [0, 0, 0, 2, 0]\nclass = rugby"] ;
24 -> 46 ;
47 [label="gini = 0.0\nsamples = 2\nvalue = [0, 0, 0, 2, 0]\nclass = rugby"] ;
23 -> 47 ;
48 [label="gini = 0.0\nsamples = 2\nvalue = [2, 0, 0, 0, 0]\nclass = athletics"] ;
22 -> 48 ;
49 [label="gini = 0.444\nsamples = 3\nvalue = [2, 0, 0, 0, 1]\nclass = athletics"] ;
21 -> 49 ;
50 [label="age <= 0.5\ngini = 0.444\nsamples = 6\nvalue = [0, 0, 2, 4, 0]\nclass = rugby"] ;
20 -> 50 ;
51 [label="associ <= 0.5\ngini = 0.32\nsamples = 5\nvalue = [0, 0, 1, 4, 0]\nclass = rugby"] ;
50 -> 51 ;
52 [label="gini = 0.0\nsamples = 4\nvalue = [0, 0, 0, 4, 0]\nclass = rugby"] ;
51 -> 52 ;
53 [label="gini = 0.0\nsamples = 1\nvalue = [0, 0, 1, 0, 0]\nclass = football"] ;
51 -> 53 ;
54 [label="gini = 0.0\nsamples = 1\nvalue = [0, 0, 1, 0, 0]\nclass = football"] ;
50 -> 54 ;
55 [label="gini = 0.625\nsamples = 4\nvalue = [1, 1, 0, 2, 0]\nclass = rugby"] ;
19 -> 55 ;
56 [label="gini = 0.0\nsamples = 3\nvalue = [0, 0, 0, 3, 0]\nclass = rugby"] ;
18 -> 56 ;
57 [label="gini = 0.0\nsamples = 3\nvalue = [0, 0, 0, 3, 0]\nclass = rugby"] ;
17 -> 57 ;
58 [label="gini = 0.0\nsamples = 3\nvalue = [0, 3, 0, 0, 0]\nclass = cricket"] ;
16 -> 58 ;
59 [label="friday <= 0.5\ngini = 0.444\nsamples = 6\nvalue = [0, 4, 0, 2, 0]\nclass = cricket"] ;
15 -> 59 ;
60 [label="gini = 0.0\nsamples = 4\nvalue = [0, 4, 0, 0, 0]\nclass = cricket"] ;
59 -> 60 ;
61 [label="gini = 0.0\nsamples = 2\nvalue = [0, 0, 0, 2, 0]\nclass = rugby"] ;
59 -> 61 ;
62 [label="gini = 0.0\nsamples = 5\nvalue = [5, 0, 0, 0, 0]\nclass = athletics"] ;
14 -> 62 ;
63 [label="gini = 0.0\nsamples = 5\nvalue = [0, 0, 0, 0, 5]\nclass = tennis"] ;
13 -> 63 ;
64 [label="pitch <= 1.0\ngini = 0.198\nsamples = 9\nvalue = [0, 0, 1, 8, 0]\nclass = rugby"] ;
12 -> 64 ;
65 [label="gini = 0.0\nsamples = 8\nvalue = [0, 0, 0, 8, 0]\nclass = rugby"] ;
64 -> 65 ;
66 [label="gini = 0.0\nsamples = 1\nvalue = [0, 0, 1, 0, 0]\nclass = football"] ;
64 -> 66 ;
67 [label="gini = 0.0\nsamples = 7\nvalue = [0, 7, 0, 0, 0]\nclass = cricket"] ;
11 -> 67 ;
68 [label="athen <= 0.5\ngini = 0.375\nsamples = 12\nvalue = [3, 0, 0, 0, 9]\nclass = tennis"] ;
10 -> 68 ;
69 [label="gini = 0.0\nsamples = 9\nvalue = [0, 0, 0, 0, 9]\nclass = tennis"] ;
68 -> 69 ;
70 [label="gini = 0.0\nsamples = 3\nvalue = [3, 0, 0, 0, 0]\nclass = athletics"] ;
68 -> 70 ;
71 [label="gini = 0.0\nsamples = 12\nvalue = [0, 0, 0, 12, 0]\nclass = rugby"] ;
9 -> 71 ;
72 [label="stun <= 0.5\ngini = 0.117\nsamples = 16\nvalue = [0, 0, 1, 15, 0]\nclass = rugby"] ;
8 -> 72 ;
73 [label="gini = 0.0\nsamples = 15\nvalue = [0, 0, 0, 15, 0]\nclass = rugby"] ;
72 -> 73 ;
74 [label="gini = 0.0\nsamples = 1\nvalue = [0, 0, 1, 0, 0]\nclass = football"] ;
72 -> 74 ;
75 [label="gini = 0.0\nsamples = 13\nvalue = [0, 13, 0, 0, 0]\nclass = cricket"] ;
7 -> 75 ;
76 [label="crucial <= 0.5\ngini = 0.111\nsamples = 17\nvalue = [16, 0, 0, 0, 1]\nclass = athletics"] ;
6 -> 76 ;
77 [label="gini = 0.0\nsamples = 16\nvalue = [16, 0, 0, 0, 0]\nclass = athletics"] ;
76 -> 77 ;
78 [label="gini = 0.0\nsamples = 1\nvalue = [0, 0, 0, 0, 1]\nclass = tennis"] ;
76 -> 78 ;
79 [label="lion <= 0.5\ngini = 0.492\nsamples = 32\nvalue = [0, 18, 0, 14, 0]\nclass = cricket"] ;
5 -> 79 ;
80 [label="quarter <= 0.5\ngini = 0.245\nsamples = 21\nvalue = [0, 18, 0, 3, 0]\nclass = cricket"] ;
79 -> 80 ;
81 [label="johnson <= 0.5\ngini = 0.1\nsamples = 19\nvalue = [0, 18, 0, 1, 0]\nclass = cricket"] ;
80 -> 81 ;
82 [label="gini = 0.0\nsamples = 18\nvalue = [0, 18, 0, 0, 0]\nclass = cricket"] ;
81 -> 82 ;
83 [label="gini = 0.0\nsamples = 1\nvalue = [0, 0, 0, 1, 0]\nclass = rugby"] ;
81 -> 83 ;
84 [label="gini = 0.0\nsamples = 2\nvalue = [0, 0, 0, 2, 0]\nclass = rugby"] ;
80 -> 84 ;
85 [label="gini = 0.0\nsamples = 11\nvalue = [0, 0, 0, 11, 0]\nclass = rugby"] ;
79 -> 85 ;
86 [label="bat <= 1.5\ngini = 0.069\nsamples = 28\nvalue = [0, 1, 0, 0, 27]\nclass = tennis"] ;
4 -> 86 ;
87 [label="gini = 0.0\nsamples = 27\nvalue = [0, 0, 0, 0, 27]\nclass = tennis"] ;
86 -> 87 ;
88 [label="gini = 0.0\nsamples = 1\nvalue = [0, 1, 0, 0, 0]\nclass = cricket"] ;
86 -> 88 ;
89 [label="reveal <= 0.5\ngini = 0.306\nsamples = 68\nvalue = [1, 3, 8, 56, 0]\nclass = rugby"] ;
3 -> 89 ;
90 [label="lanka <= 0.5\ngini = 0.227\nsamples = 64\nvalue = [1, 2, 5, 56, 0]\nclass = rugby"] ;
89 -> 90 ;
91 [label="qualifi <= 0.5\ngini = 0.177\nsamples = 62\nvalue = [1, 0, 5, 56, 0]\nclass = rugby"] ;
90 -> 91 ;
92 [label="blackburn <= 0.5\ngini = 0.126\nsamples = 60\nvalue = [1, 0, 3, 56, 0]\nclass = rugby"] ;
91 -> 92 ;
93 [label="fernando <= 0.5\ngini = 0.067\nsamples = 58\nvalue = [1, 0, 1, 56, 0]\nclass = rugby"] ;
92 -> 93 ;
94 [label="mauric <= 0.5\ngini = 0.034\nsamples = 57\nvalue = [1, 0, 0, 56, 0]\nclass = rugby"] ;
93 -> 94 ;
95 [label="gini = 0.0\nsamples = 56\nvalue = [0, 0, 0, 56, 0]\nclass = rugby"] ;
94 -> 95 ;
96 [label="gini = 0.0\nsamples = 1\nvalue = [1, 0, 0, 0, 0]\nclass = athletics"] ;
94 -> 96 ;
97 [label="gini = 0.0\nsamples = 1\nvalue = [0, 0, 1, 0, 0]\nclass = football"] ;
93 -> 97 ;
98 [label="gini = 0.0\nsamples = 2\nvalue = [0, 0, 2, 0, 0]\nclass = football"] ;
92 -> 98 ;
99 [label="gini = 0.0\nsamples = 2\nvalue = [0, 0, 2, 0, 0]\nclass = football"] ;
91 -> 99 ;
100 [label="gini = 0.0\nsamples = 2\nvalue = [0, 2, 0, 0, 0]\nclass = cricket"] ;
90 -> 100 ;
101 [label="gini = 0.375\nsamples = 4\nvalue = [0, 1, 3, 0, 0]\nclass = football"] ;
89 -> 101 ;
102 [label="group <= 2.5\ngini = 0.129\nsamples = 44\nvalue = [0, 0, 2, 1, 41]\nclass = tennis"] ;
2 -> 102 ;
103 [label="consist <= 0.5\ngini = 0.046\nsamples = 42\nvalue = [0, 0, 0, 1, 41]\nclass = tennis"] ;
102 -> 103 ;
104 [label="gini = 0.0\nsamples = 41\nvalue = [0, 0, 0, 0, 41]\nclass = tennis"] ;
103 -> 104 ;
105 [label="gini = 0.0\nsamples = 1\nvalue = [0, 0, 0, 1, 0]\nclass = rugby"] ;
103 -> 105 ;
106 [label="gini = 0.0\nsamples = 2\nvalue = [0, 0, 2, 0, 0]\nclass = football"] ;
102 -> 106 ;
107 [label="tie <= 2.0\ngini = 0.092\nsamples = 63\nvalue = [60, 0, 2, 0, 1]\nclass = athletics"] ;
1 -> 107 ;
108 [label="slam <= 0.5\ngini = 0.032\nsamples = 61\nvalue = [60, 0, 0, 0, 1]\nclass = athletics"] ;
107 -> 108 ;
109 [label="gini = 0.0\nsamples = 60\nvalue = [60, 0, 0, 0, 0]\nclass = athletics"] ;
108 -> 109 ;
110 [label="gini = 0.0\nsamples = 1\nvalue = [0, 0, 0, 0, 1]\nclass = tennis"] ;
108 -> 110 ;
111 [label="gini = 0.0\nsamples = 2\nvalue = [0, 0, 2, 0, 0]\nclass = football"] ;
107 -> 111 ;
112 [label="gini = 0.0\nsamples = 60\nvalue = [0, 60, 0, 0, 0]\nclass = cricket"] ;
0 -> 112 [labeldistance=2.5, labelangle=-45, headlabel="False"] ;
}