digraph Tree {
node [shape=box] ;
0 [label="athlet <= 0.04\ngini = 0.767\nsamples = 655\nvalue = [93, 113, 234, 128, 87]\nclass = football"] ;
1 [label="wicket <= 0.011\ngini = 0.739\nsamples = 592\nvalue = [33, 113, 232, 128, 86]\nclass = football"] ;
0 -> 1 [labeldistance=2.5, labelangle=45, headlabel="True"] ;
2 [label="seed <= 0.024\ngini = 0.712\nsamples = 532\nvalue = [33, 53, 232, 128, 86]\nclass = football"] ;
1 -> 2 ;
3 [label="wale <= 0.012\ngini = 0.685\nsamples = 488\nvalue = [33, 53, 230, 127, 45]\nclass = football"] ;
2 -> 3 ;
4 [label="tenni <= 0.005\ngini = 0.661\nsamples = 420\nvalue = [32, 50, 222, 71, 45]\nclass = football"] ;
3 -> 4 ;
5 [label="zealand <= 0.019\ngini = 0.622\nsamples = 392\nvalue = [32, 49, 222, 71, 18]\nclass = football"] ;
4 -> 5 ;
6 [label="indoor <= 0.033\ngini = 0.577\nsamples = 360\nvalue = [32, 31, 222, 57, 18]\nclass = football"] ;
5 -> 6 ;
7 [label="india <= 0.058\ngini = 0.541\nsamples = 343\nvalue = [16, 31, 222, 57, 17]\nclass = football"] ;
6 -> 7 ;
8 [label="robinson <= 0.034\ngini = 0.51\nsamples = 330\nvalue = [16, 18, 222, 57, 17]\nclass = football"] ;
7 -> 8 ;
9 [label="flanker <= 0.035\ngini = 0.478\nsamples = 314\nvalue = [16, 18, 221, 42, 17]\nclass = football"] ;
8 -> 9 ;
10 [label="grand <= 0.029\ngini = 0.445\nsamples = 302\nvalue = [16, 18, 221, 30, 17]\nclass = football"] ;
9 -> 10 ;
11 [label="icc <= 0.042\ngini = 0.402\nsamples = 290\nvalue = [13, 18, 221, 30, 8]\nclass = football"] ;
10 -> 11 ;
12 [label="heineken <= 0.037\ngini = 0.375\nsamples = 283\nvalue = [13, 11, 221, 30, 8]\nclass = football"] ;
11 -> 12 ;
13 [label="roddick <= 0.049\ngini = 0.344\nsamples = 274\nvalue = [13, 11, 220, 22, 8]\nclass = football"] ;
12 -> 13 ;
14 [label="cross <= 0.209\ngini = 0.32\nsamples = 269\nvalue = [13, 11, 220, 22, 3]\nclass = football"] ;
13 -> 14 ;
15 [label="bell <= 0.034\ngini = 0.296\nsamples = 264\nvalue = [8, 11, 220, 22, 3]\nclass = football"] ;
14 -> 15 ;
16 [label="marathon <= 0.097\ngini = 0.265\nsamples = 258\nvalue = [8, 7, 220, 20, 3]\nclass = football"] ;
15 -> 16 ;
17 [label="batsman <= 0.036\ngini = 0.242\nsamples = 254\nvalue = [4, 7, 220, 20, 3]\nclass = football"] ;
16 -> 17 ;
18 [label="role <= 0.12\ngini = 0.225\nsamples = 251\nvalue = [4, 4, 220, 20, 3]\nclass = football"] ;
17 -> 18 ;
19 [label="rb <= 0.053\ngini = 0.201\nsamples = 247\nvalue = [4, 3, 220, 17, 3]\nclass = football"] ;
18 -> 19 ;
20 [label="scrum <= 0.06\ngini = 0.183\nsamples = 244\nvalue = [4, 3, 220, 14, 3]\nclass = football"] ;
19 -> 20 ;
21 [label="sydney <= 0.061\ngini = 0.164\nsamples = 241\nvalue = [4, 3, 220, 11, 3]\nclass = football"] ;
20 -> 21 ;
22 [label="leed <= 0.147\ngini = 0.136\nsamples = 236\nvalue = [2, 3, 219, 11, 1]\nclass = football"] ;
21 -> 22 ;
23 [label="union <= 0.089\ngini = 0.116\nsamples = 232\nvalue = [2, 3, 218, 8, 1]\nclass = football"] ;
22 -> 23 ;
24 [label="american <= 0.097\ngini = 0.093\nsamples = 228\nvalue = [2, 3, 217, 5, 1]\nclass = football"] ;
23 -> 24 ;
25 [label="tait <= 0.08\ngini = 0.077\nsamples = 226\nvalue = [0, 3, 217, 5, 1]\nclass = football"] ;
24 -> 25 ;
26 [label="tough <= 0.182\ngini = 0.061\nsamples = 224\nvalue = [0, 3, 217, 3, 1]\nclass = football"] ;
25 -> 26 ;
27 [label="youngster <= 0.163\ngini = 0.053\nsamples = 223\nvalue = [0, 3, 217, 3, 0]\nclass = football"] ;
26 -> 27 ;
28 [label="argentina <= 0.415\ngini = 0.044\nsamples = 222\nvalue = [0, 3, 217, 2, 0]\nclass = football"] ;
27 -> 28 ;
29 [label="bath <= 0.355\ngini = 0.036\nsamples = 221\nvalue = [0, 3, 217, 1, 0]\nclass = football"] ;
28 -> 29 ;
30 [label="practic <= 0.048\ngini = 0.027\nsamples = 220\nvalue = [0, 3, 217, 0, 0]\nclass = football"] ;
29 -> 30 ;
31 [label="zimbabw <= 0.262\ngini = 0.018\nsamples = 219\nvalue = [0, 2, 217, 0, 0]\nclass = football"] ;
30 -> 31 ;
32 [label="order <= 0.172\ngini = 0.009\nsamples = 218\nvalue = [0, 1, 217, 0, 0]\nclass = football"] ;
31 -> 32 ;
33 [label="gini = 0.0\nsamples = 217\nvalue = [0, 0, 217, 0, 0]\nclass = football"] ;
32 -> 33 ;
34 [label="gini = 0.0\nsamples = 1\nvalue = [0, 1, 0, 0, 0]\nclass = cricket"] ;
32 -> 34 ;
35 [label="gini = 0.0\nsamples = 1\nvalue = [0, 1, 0, 0, 0]\nclass = cricket"] ;
31 -> 35 ;
36 [label="gini = 0.0\nsamples = 1\nvalue = [0, 1, 0, 0, 0]\nclass = cricket"] ;
30 -> 36 ;
37 [label="gini = 0.0\nsamples = 1\nvalue = [0, 0, 0, 1, 0]\nclass = rugby"] ;
29 -> 37 ;
38 [label="gini = 0.0\nsamples = 1\nvalue = [0, 0, 0, 1, 0]\nclass = rugby"] ;
28 -> 38 ;
39 [label="gini = 0.0\nsamples = 1\nvalue = [0, 0, 0, 1, 0]\nclass = rugby"] ;
27 -> 39 ;
40 [label="gini = 0.0\nsamples = 1\nvalue = [0, 0, 0, 0, 1]\nclass = tennis"] ;
26 -> 40 ;
41 [label="gini = 0.0\nsamples = 2\nvalue = [0, 0, 0, 2, 0]\nclass = rugby"] ;
25 -> 41 ;
42 [label="gini = 0.0\nsamples = 2\nvalue = [2, 0, 0, 0, 0]\nclass = athletics"] ;
24 -> 42 ;
43 [label="gini = 0.375\nsamples = 4\nvalue = [0, 0, 1, 3, 0]\nclass = rugby"] ;
23 -> 43 ;
44 [label="gini = 0.375\nsamples = 4\nvalue = [0, 0, 1, 3, 0]\nclass = rugby"] ;
22 -> 44 ;
45 [label="tournament <= 0.052\ngini = 0.64\nsamples = 5\nvalue = [2, 0, 1, 0, 2]\nclass = athletics"] ;
21 -> 45 ;
46 [label="gini = 0.444\nsamples = 3\nvalue = [2, 0, 1, 0, 0]\nclass = athletics"] ;
45 -> 46 ;
47 [label="gini = 0.0\nsamples = 2\nvalue = [0, 0, 0, 0, 2]\nclass = tennis"] ;
45 -> 47 ;
48 [label="gini = 0.0\nsamples = 3\nvalue = [0, 0, 0, 3, 0]\nclass = rugby"] ;
20 -> 48 ;
49 [label="gini = 0.0\nsamples = 3\nvalue = [0, 0, 0, 3, 0]\nclass = rugby"] ;
19 -> 49 ;
50 [label="gini = 0.375\nsamples = 4\nvalue = [0, 1, 0, 3, 0]\nclass = rugby"] ;
18 -> 50 ;
51 [label="gini = 0.0\nsamples = 3\nvalue = [0, 3, 0, 0, 0]\nclass = cricket"] ;
17 -> 51 ;
52 [label="gini = 0.0\nsamples = 4\nvalue = [4, 0, 0, 0, 0]\nclass = athletics"] ;
16 -> 52 ;
53 [label="friday <= 0.043\ngini = 0.444\nsamples = 6\nvalue = [0, 4, 0, 2, 0]\nclass = cricket"] ;
15 -> 53 ;
54 [label="gini = 0.0\nsamples = 4\nvalue = [0, 4, 0, 0, 0]\nclass = cricket"] ;
53 -> 54 ;
55 [label="gini = 0.0\nsamples = 2\nvalue = [0, 0, 0, 2, 0]\nclass = rugby"] ;
53 -> 55 ;
56 [label="gini = 0.0\nsamples = 5\nvalue = [5, 0, 0, 0, 0]\nclass = athletics"] ;
14 -> 56 ;
57 [label="gini = 0.0\nsamples = 5\nvalue = [0, 0, 0, 0, 5]\nclass = tennis"] ;
13 -> 57 ;
58 [label="fact <= 0.067\ngini = 0.198\nsamples = 9\nvalue = [0, 0, 1, 8, 0]\nclass = rugby"] ;
12 -> 58 ;
59 [label="gini = 0.0\nsamples = 8\nvalue = [0, 0, 0, 8, 0]\nclass = rugby"] ;
58 -> 59 ;
60 [label="gini = 0.0\nsamples = 1\nvalue = [0, 0, 1, 0, 0]\nclass = football"] ;
58 -> 60 ;
61 [label="gini = 0.0\nsamples = 7\nvalue = [0, 7, 0, 0, 0]\nclass = cricket"] ;
11 -> 61 ;
62 [label="slam <= 0.061\ngini = 0.375\nsamples = 12\nvalue = [3, 0, 0, 0, 9]\nclass = tennis"] ;
10 -> 62 ;
63 [label="gini = 0.0\nsamples = 3\nvalue = [3, 0, 0, 0, 0]\nclass = athletics"] ;
62 -> 63 ;
64 [label="gini = 0.0\nsamples = 9\nvalue = [0, 0, 0, 0, 9]\nclass = tennis"] ;
62 -> 64 ;
65 [label="gini = 0.0\nsamples = 12\nvalue = [0, 0, 0, 12, 0]\nclass = rugby"] ;
9 -> 65 ;
66 [label="volley <= 0.071\ngini = 0.117\nsamples = 16\nvalue = [0, 0, 1, 15, 0]\nclass = rugby"] ;
8 -> 66 ;
67 [label="gini = 0.0\nsamples = 15\nvalue = [0, 0, 0, 15, 0]\nclass = rugby"] ;
66 -> 67 ;
68 [label="gini = 0.0\nsamples = 1\nvalue = [0, 0, 1, 0, 0]\nclass = football"] ;
66 -> 68 ;
69 [label="gini = 0.0\nsamples = 13\nvalue = [0, 13, 0, 0, 0]\nclass = cricket"] ;
7 -> 69 ;
70 [label="fought <= 0.141\ngini = 0.111\nsamples = 17\nvalue = [16, 0, 0, 0, 1]\nclass = athletics"] ;
6 -> 70 ;
71 [label="gini = 0.0\nsamples = 16\nvalue = [16, 0, 0, 0, 0]\nclass = athletics"] ;
70 -> 71 ;
72 [label="gini = 0.0\nsamples = 1\nvalue = [0, 0, 0, 0, 1]\nclass = tennis"] ;
70 -> 72 ;
73 [label="lion <= 0.035\ngini = 0.492\nsamples = 32\nvalue = [0, 18, 0, 14, 0]\nclass = cricket"] ;
5 -> 73 ;
74 [label="quarter <= 0.02\ngini = 0.245\nsamples = 21\nvalue = [0, 18, 0, 3, 0]\nclass = cricket"] ;
73 -> 74 ;
75 [label="relish <= 0.064\ngini = 0.1\nsamples = 19\nvalue = [0, 18, 0, 1, 0]\nclass = cricket"] ;
74 -> 75 ;
76 [label="gini = 0.0\nsamples = 18\nvalue = [0, 18, 0, 0, 0]\nclass = cricket"] ;
75 -> 76 ;
77 [label="gini = 0.0\nsamples = 1\nvalue = [0, 0, 0, 1, 0]\nclass = rugby"] ;
75 -> 77 ;
78 [label="gini = 0.0\nsamples = 2\nvalue = [0, 0, 0, 2, 0]\nclass = rugby"] ;
74 -> 78 ;
79 [label="gini = 0.0\nsamples = 11\nvalue = [0, 0, 0, 11, 0]\nclass = rugby"] ;
73 -> 79 ;
80 [label="member <= 0.073\ngini = 0.069\nsamples = 28\nvalue = [0, 1, 0, 0, 27]\nclass = tennis"] ;
4 -> 80 ;
81 [label="gini = 0.0\nsamples = 27\nvalue = [0, 0, 0, 0, 27]\nclass = tennis"] ;
80 -> 81 ;
82 [label="gini = 0.0\nsamples = 1\nvalue = [0, 1, 0, 0, 0]\nclass = cricket"] ;
80 -> 82 ;
83 [label="board <= 0.092\ngini = 0.306\nsamples = 68\nvalue = [1, 3, 8, 56, 0]\nclass = rugby"] ;
3 -> 83 ;
84 [label="striker <= 0.036\ngini = 0.242\nsamples = 65\nvalue = [1, 0, 8, 56, 0]\nclass = rugby"] ;
83 -> 84 ;
85 [label="west <= 0.077\ngini = 0.177\nsamples = 62\nvalue = [1, 0, 5, 56, 0]\nclass = rugby"] ;
84 -> 85 ;
86 [label="night <= 0.069\ngini = 0.126\nsamples = 60\nvalue = [1, 0, 3, 56, 0]\nclass = rugby"] ;
85 -> 86 ;
87 [label="athen <= 0.054\ngini = 0.067\nsamples = 58\nvalue = [1, 0, 1, 56, 0]\nclass = rugby"] ;
86 -> 87 ;
88 [label="leav <= 0.129\ngini = 0.034\nsamples = 57\nvalue = [0, 0, 1, 56, 0]\nclass = rugby"] ;
87 -> 88 ;
89 [label="gini = 0.0\nsamples = 56\nvalue = [0, 0, 0, 56, 0]\nclass = rugby"] ;
88 -> 89 ;
90 [label="gini = 0.0\nsamples = 1\nvalue = [0, 0, 1, 0, 0]\nclass = football"] ;
88 -> 90 ;
91 [label="gini = 0.0\nsamples = 1\nvalue = [1, 0, 0, 0, 0]\nclass = athletics"] ;
87 -> 91 ;
92 [label="gini = 0.0\nsamples = 2\nvalue = [0, 0, 2, 0, 0]\nclass = football"] ;
86 -> 92 ;
93 [label="gini = 0.0\nsamples = 2\nvalue = [0, 0, 2, 0, 0]\nclass = football"] ;
85 -> 93 ;
94 [label="gini = 0.0\nsamples = 3\nvalue = [0, 0, 3, 0, 0]\nclass = football"] ;
84 -> 94 ;
95 [label="gini = 0.0\nsamples = 3\nvalue = [0, 3, 0, 0, 0]\nclass = cricket"] ;
83 -> 95 ;
96 [label="group <= 0.311\ngini = 0.129\nsamples = 44\nvalue = [0, 0, 2, 1, 41]\nclass = tennis"] ;
2 -> 96 ;
97 [label="dallaglio <= 0.073\ngini = 0.046\nsamples = 42\nvalue = [0, 0, 0, 1, 41]\nclass = tennis"] ;
96 -> 97 ;
98 [label="gini = 0.0\nsamples = 41\nvalue = [0, 0, 0, 0, 41]\nclass = tennis"] ;
97 -> 98 ;
99 [label="gini = 0.0\nsamples = 1\nvalue = [0, 0, 0, 1, 0]\nclass = rugby"] ;
97 -> 99 ;
100 [label="gini = 0.0\nsamples = 2\nvalue = [0, 0, 2, 0, 0]\nclass = football"] ;
96 -> 100 ;
101 [label="gini = 0.0\nsamples = 60\nvalue = [0, 60, 0, 0, 0]\nclass = cricket"] ;
1 -> 101 ;
102 [label="tie <= 0.171\ngini = 0.092\nsamples = 63\nvalue = [60, 0, 2, 0, 1]\nclass = athletics"] ;
0 -> 102 [labeldistance=2.5, labelangle=-45, headlabel="False"] ;
103 [label="insist <= 0.141\ngini = 0.032\nsamples = 61\nvalue = [60, 0, 0, 0, 1]\nclass = athletics"] ;
102 -> 103 ;
104 [label="gini = 0.0\nsamples = 60\nvalue = [60, 0, 0, 0, 0]\nclass = athletics"] ;
103 -> 104 ;
105 [label="gini = 0.0\nsamples = 1\nvalue = [0, 0, 0, 0, 1]\nclass = tennis"] ;
103 -> 105 ;
106 [label="gini = 0.0\nsamples = 2\nvalue = [0, 0, 2, 0, 0]\nclass = football"] ;
102 -> 106 ;
}